<?xml version="1.0"?>
<opencv_storage>
<myhaar type_id="opencv-haar-classifier">
  <size>
    24 24</size>
  <stages>
    <_>
      <trees>
        <_>
          <_>
            <feature>
              <rects>
                <_>
                  0 0 21 22 -1.</_>
                <_>
                  0 11 21 11 2.</_></rects>
              <tilted>0</tilted></feature>
            <threshold>-0.5619453787803650</threshold>
            <left_val>0.9801980257034302</left_val>
            <right_val>-1.</right_val></_></_></trees>
      <stage_threshold>0.9801980257034302</stage_threshold>
      <parent>-1</parent>
      <next>-1</next></_>
    <_>
      <trees>
        <_>
          <_>
            <feature>
              <rects>
                <_>
                  4 5 12 9 -1.</_>
                <_>
                  10 5 6 9 2.</_></rects>
              <tilted>0</tilted></feature>
            <threshold>-0.0842289924621582</threshold>
            <left_val>1.</left_val>
            <right_val>-1.</right_val></_></_></trees>
      <stage_threshold>1.</stage_threshold>
      <parent>0</parent>
      <next>-1</next></_>
    <_>
      <trees>
        <_>
          <_>
            <feature>
              <rects>
                <_>
                  7 0 5 12 -1.</_>
                <_>
                  7 3 5 6 2.</_></rects>
              <tilted>0</tilted></feature>
            <threshold>-0.0378557890653610</threshold>
            <left_val>0.9512196183204651</left_val>
            <right_val>-1.0000009536743164</right_val></_></_></trees>
      <stage_threshold>0.9512196183204651</stage_threshold>
      <parent>1</parent>
      <next>-1</next></_>
    <_>
      <trees>
        <_>
          <_>
            <feature>
              <rects>
                <_>
                  6 12 2 10 -1.</_>
                <_>
                  6 12 1 5 2.</_>
                <_>
                  7 17 1 5 2.</_></rects>
              <tilted>0</tilted></feature>
            <threshold>-5.7810777798295021e-003</threshold>
            <left_val>0.9492385983467102</left_val>
            <right_val>-0.9211828112602234</right_val></_></_>
        <_>
          <_>
            <feature>
              <rects>
                <_>
                  0 17 24 5 -1.</_>
                <_>
                  6 17 12 5 2.</_></rects>
              <tilted>0</tilted></feature>
            <threshold>-0.0600591897964478</threshold>
            <left_val>0.8516663908958435</left_val>
            <right_val>-1.0000079870223999</right_val></_></_></trees>
      <stage_threshold>-0.0695164203643799</stage_threshold>
      <parent>2</parent>
      <next>-1</next></_></stages></myhaar>
</opencv_storage>
